lanesSide = 3;
patchesAhead = 5;
patchesBehind = 1;
trainIterations = 30000;

var num_inputs = (lanesSide * 2 + 1) * (patchesAhead + patchesBehind);
var num_actions = 5;
var temporal_window = 3;
var network_size = num_inputs * temporal_window + num_actions * temporal_window + num_inputs;

var layer_defs = [];
layer_defs.push({
    type: 'input',
    out_sx: 1,
    out_sy: 1,
    out_depth: network_size
});
layer_defs.push({
    type: 'fc',
    num_neurons: 8,
    activation: 'relu'
});
layer_defs.push({
    type: 'regression',
    num_neurons: num_actions
});

var tdtrainer_options = {
    learning_rate: 0.002,
    momentum: 0.11,
    batch_size: 128,
    l2_decay: 0.0175
};

var opt = {};
opt.temporal_window = temporal_window;
opt.experience_size = 4000;
opt.start_learn_threshold = 500;
opt.gamma = 0.7;
opt.learning_steps_total = 10000;
opt.learning_steps_burnin = 1000;
opt.epsilon_min = 0.0;
opt.epsilon_test_time = 0.0;
opt.layer_defs = layer_defs;
opt.tdtrainer_options = tdtrainer_options;

brain = new deepqlearn.Brain(num_inputs, num_actions, opt);

learn = function (state, lastReward) {
    brain.backward(lastReward);
    var action = brain.forward(state);

    draw_net();
    draw_stats();

    return action;
}

/*###########*/
if (brain) {
brain.value_net.fromJSON({"layers":[{"out_depth":183,"out_sx":1,"out_sy":1,"layer_type":"input"},{"out_depth":8,"out_sx":1,"out_sy":1,"layer_type":"fc","num_inputs":183,"l1_decay_mul":0,"l2_decay_mul":1,"filters":[{"sx":1,"sy":1,"depth":183,"w":{"0":0.03955609115991963,"1":-0.017548631895820663,"2":-0.07211204358161738,"3":0.3987102798155083,"4":-0.10866151572047822,"5":0.08050679083528318,"6":-0.0033916405508277554,"7":-0.03148486951240946,"8":-0.004492835399532423,"9":0.043762680378414465,"10":0.3480324368835269,"11":-0.128421418407706,"12":0.16422861610651884,"13":0.12736220856515698,"14":0.10631591388784178,"15":0.1341898901218599,"16":-0.06645840514656615,"17":0.11066579548053092,"18":0.0220404134455743,"19":-0.0059011609961213025,"20":-0.05418106109433033,"21":-0.015799579149776723,"22":-0.10984369925888281,"23":-0.03436035982193786,"24":-0.09443212319572213,"25":-0.11370913858019778,"26":0.00004528689016818071,"27":-0.13327620333982118,"28":0.07982017588774297,"29":0.02536908318699043,"30":-0.20258670544068433,"31":0.033858863419187535,"32":-0.06850509770456796,"33":0.04335590761484342,"34":-0.06573523409169474,"35":0.0960399068969625,"36":-0.005087932031585054,"37":-0.00032067061645403404,"38":-0.3236717233661931,"39":-0.12268568067685229,"40":-0.09781991021023505,"41":-0.15803703623202134,"42":-0.012244369218692234,"43":0.18243126861592635,"44":-0.16196756794607967,"45":0.23975219869743974,"46":-0.005044352502810822,"47":0.07712268761341931,"48":-0.03584834537219749,"49":-0.004143748986450914,"50":-0.003962150738829494,"51":-0.06263101947181078,"52":0.2767031700788547,"53":0.023448221394858873,"54":0.018556681393849514,"55":0.03525575256073876,"56":0.13161375058822883,"57":-0.012076648612042981,"58":-0.08625590836498585,"59":0.06758346296809156,"60":-0.01830633911577043,"61":-0.002445770311851155,"62":0.12487346794548335,"63":0.060015659665279206,"64":0.10703293658760506,"65":-0.1131611400364182,"66":0.10008092503809787,"67":-0.027857444763137933,"68":-0.125596998817766,"69":-0.04196741637508282,"70":-0.09215889498472643,"71":-0.011490464503011999,"72":-0.08353245743248036,"73":-0.025957874681960202,"74":0.005841674746699493,"75":-0.14808219796579378,"76":-0.1123564430869172,"77":0.03781006994637026,"78":-0.05253700920182102,"79":0.03212737509042776,"80":-0.2503197257420499,"81":-0.018658730807211334,"82":0.03552023314700711,"83":-0.008866468205172675,"84":-0.019130601028467205,"85":-0.0314556299852322,"86":0.029085276609213596,"87":-0.02257001929308908,"88":-0.01588781252208988,"89":0.035900737154705785,"90":0.03002009352003727,"91":-0.0928784251256776,"92":0.1732144782364785,"93":0.028872835476986967,"94":0.04015816909422937,"95":0.04581384838946913,"96":-0.04725767765269482,"97":-0.07174375782147314,"98":0.09122897920211102,"99":0.21149164093836376,"100":-0.02302853727215523,"101":0.052326198338221434,"102":0.013578630289229692,"103":0.023897463156462847,"104":0.006169660798749557,"105":-0.17201008764512846,"106":-0.05511139684772809,"107":-0.011982703818266487,"108":-0.014657051401546151,"109":0.038990570633861035,"110":-0.14213930840365735,"111":0.03460105112037703,"112":0.009788625116175332,"113":0.11729546731856441,"114":0.07074235556264209,"115":0.011996385016177355,"116":-0.04733958210670313,"117":-0.03667350177193532,"118":0.03452776519106927,"119":0.08120894517558608,"120":0.06247829172107576,"121":-0.1858604158527876,"122":0.04463738132514921,"123":0.07720227290903361,"124":-0.026813062199157658,"125":0.0037414457724845034,"126":0.008601952119433535,"127":-0.16139232838647993,"128":-0.026833672359581753,"129":-0.13453301104680165,"130":0.07461663914065149,"131":-0.004760806984067565,"132":0.016727353503386142,"133":0.048799471865313526,"134":0.01807911627441593,"135":0.026043281692918835,"136":0.0009477886591185928,"137":-0.01829237894722023,"138":0.10605075821005226,"139":0.19387299965194846,"140":-0.0014149412220307188,"141":-0.18388803267600662,"142":-0.03469342006573235,"143":0.21736862691367684,"144":0.030115598783534092,"145":0.12068405958901789,"146":0.1939768631038379,"147":0.0012260438535637212,"148":-0.10252485386035799,"149":-0.010654602395407541,"150":-0.22871169863236437,"151":0.1385333280527737,"152":0.022741040185195394,"153":0.05977757615068641,"154":0.007962006963105263,"155":-0.0027759979161994406,"156":-0.03286724368802167,"157":0.07067577672789713,"158":-0.021416756385571473,"159":-0.02264482286914729,"160":0.031482605585336394,"161":0.09949514264650935,"162":0.06105887764316045,"163":0.0007783458274620632,"164":-0.1123100384801107,"165":0.04233914831762887,"166":0.013611306600786128,"167":-0.017843036776382274,"168":-0.15774268800155078,"169":-0.061123035952704755,"170":0.11207712350592382,"171":0.059884939852493914,"172":0.03022282175040522,"173":-0.0672749613917507,"174":-0.24730820465301323,"175":0.07164654868389293,"176":0.0008430960526010398,"177":-0.0563578786346431,"178":0.07801551428389365,"179":0.06534820745693998,"180":0.12642025580612987,"181":0.06672449442177134,"182":0.06670058755740865}},{"sx":1,"sy":1,"depth":183,"w":{"0":-0.015755299850834566,"1":-0.02880602002256423,"2":0.07702870831496414,"3":0.03368623156220137,"4":-0.12707335530243133,"5":0.05415262947347788,"6":0.0383676824416448,"7":0.15283297199728918,"8":-0.06820006046719454,"9":-0.03664498301999986,"10":0.09505363449246262,"11":-0.037252781471841225,"12":-0.021956403441008732,"13":-0.056808180499402776,"14":0.10167394021671229,"15":-0.04107586545154686,"16":0.010265681691374163,"17":-0.10726374291821897,"18":0.06453296994453692,"19":-0.05200683015277447,"20":-0.0678267532095359,"21":-0.026166584150571954,"22":-0.17446178246529978,"23":0.026959229954922437,"24":-0.07414049835671224,"25":0.09093917217272056,"26":-0.134671794111325,"27":-0.178135503486717,"28":-0.023407945745616082,"29":-0.021806932770828857,"30":-0.11722575437132705,"31":0.0651064798803182,"32":-0.03967462346025933,"33":-0.06903665779288223,"34":-0.09982806529290772,"35":-0.030271845364069412,"36":-0.10245592585127578,"37":-0.07729988222774103,"38":0.1480219019835067,"39":0.1289491282629006,"40":-0.06467137773802384,"41":0.06777747821105698,"42":-0.019460767819942236,"43":-0.05316710254769424,"44":-0.0930365288135656,"45":-0.03130306310012869,"46":-0.14967670607549344,"47":-0.07367840713472046,"48":0.015962519890425457,"49":-0.04712522291962679,"50":-0.0169810378280613,"51":-0.008457959386103496,"52":0.09020794723386927,"53":0.003818568793586001,"54":-0.02008619555598863,"55":-0.03700660180840442,"56":0.09506784674702298,"57":0.028572437014289576,"58":-0.0858452254711765,"59":0.03876502922920837,"60":-0.003088022900583355,"61":-0.062459376877201905,"62":-0.029846772527683536,"63":-0.04572596831458712,"64":-0.09019142245901035,"65":0.13091109446849913,"66":-0.03206347987287794,"67":0.013600324751237984,"68":-0.029204520551278916,"69":-0.0065979133593380805,"70":0.08741927548696792,"71":-0.0747826984439347,"72":-0.04585164426771646,"73":0.08114280192656612,"74":-0.044905807537645226,"75":-0.04047121348281076,"76":0.10532004761644068,"77":-0.05160798560781134,"78":0.06730714132540364,"79":-0.032233078276681135,"80":0.14266251436814853,"81":-0.010605069362428063,"82":0.08408593334522624,"83":-0.026229614463811862,"84":-0.007457319124925549,"85":-0.027645073217293367,"86":0.10093677900135209,"87":-0.0074988744346581055,"88":0.0032258477778071932,"89":-0.029763293147605764,"90":-0.03910129093272422,"91":0.05458069559265313,"92":-0.12488029527504227,"93":0.01711357424855808,"94":-0.09880553349876547,"95":-0.0037521426920762535,"96":-0.16885589539066972,"97":0.1242585489125234,"98":0.0314643639159441,"99":-0.009853730293102134,"100":0.07094285914113271,"101":0.08294298454068144,"102":-0.08165878087639883,"103":-0.09880198150798546,"104":0.04037354211664332,"105":0.024202498254160668,"106":0.09024810835997762,"107":-0.03588699774337957,"108":-0.031044964592491044,"109":0.08309763475756524,"110":0.014293278085926842,"111":-0.04342707918464687,"112":-0.012318857084805764,"113":0.06272122027890303,"114":-0.03335872288071514,"115":-0.08594397440340619,"116":-0.02922235577835424,"117":0.030921434523460817,"118":-0.10424846207453899,"119":-0.037331406332310316,"120":-0.045244828502888065,"121":-0.012321309288318342,"122":-0.05611886905154474,"123":0.11951587955154888,"124":-0.0002578910262099364,"125":0.049784282509986635,"126":0.03190483663891278,"127":0.09384363025176852,"128":-0.003789040783261889,"129":0.02858850521772577,"130":0.16708901206762983,"131":-0.07263704620397729,"132":-0.08783663945320398,"133":-0.07671343034144987,"134":-0.01748628082389967,"135":-0.06672375807201981,"136":0.016404850710196216,"137":0.04870327787973012,"138":-0.055373108896098436,"139":-0.07999632247649939,"140":0.017869132595081366,"141":0.10597106162035881,"142":0.015252303422212963,"143":-0.05740650358166313,"144":-0.034388946134518435,"145":0.013743448403192691,"146":0.03556321877979225,"147":0.03151082533339618,"148":-0.06444934784415052,"149":-0.010337134464420918,"150":-0.08349577338290552,"151":-0.046462459065373454,"152":0.07617504613407423,"153":-0.09632298126701355,"154":-0.04632977756977536,"155":-0.003972794022941466,"156":-0.02705802157541435,"157":-0.036048377973653185,"158":-0.1175853279430407,"159":0.005868121845376805,"160":0.10726405569956765,"161":-0.0154277731687137,"162":-0.009472321950613496,"163":0.10560096522582928,"164":-0.03455920722174132,"165":0.06297202216152485,"166":0.2162064290747449,"167":-0.006370552032536887,"168":0.07531376889795374,"169":-0.02899392692258665,"170":0.003545046144978835,"171":0.08953816163663354,"172":-0.07895638900661406,"173":-0.056415851511177284,"174":0.04192995295378578,"175":-0.06735276198303865,"176":-0.033669998721259295,"177":0.02054786554248784,"178":-0.04130004864902421,"179":-0.1288527665943156,"180":-0.09145553846954625,"181":-0.07020885740964299,"182":-0.07305952404090323}},{"sx":1,"sy":1,"depth":183,"w":{"0":0.13347804610051917,"1":0.008396601467490274,"2":-0.14743124545065195,"3":-0.019758953904883508,"4":-0.021401065081256443,"5":-0.11475884902230839,"6":-0.0759405614362028,"7":0.028104700267263114,"8":0.19931696382636635,"9":-0.0027216484373433817,"10":-0.08335249612877642,"11":-0.15920094364600804,"12":0.02143959972982942,"13":-0.04160726697758334,"14":0.07970338579693832,"15":0.1404597596007251,"16":-0.017948046891517206,"17":-0.02989050318611016,"18":0.028832313202925234,"19":0.01623792751888818,"20":-0.034090372909821254,"21":0.01380591696947275,"22":0.06690344751983561,"23":-0.1287950412294025,"24":-0.03767437729081351,"25":-0.023245518305457968,"26":0.0628106286943246,"27":-0.09039154878283225,"28":-0.11210040840255228,"29":-0.035581087123205575,"30":0.0241854820747796,"31":-0.016767454833108323,"32":-0.0961928047245377,"33":-0.07730302744409494,"34":0.06831921565631653,"35":0.03965627350639722,"36":0.09118165658237597,"37":-0.016605212689442473,"38":-0.0326790621567023,"39":0.04738572320154728,"40":-0.14040085253182308,"41":-0.10257534048423951,"42":0.030900757136167824,"43":0.0871347756832263,"44":-0.14058931415375084,"45":0.040041672567344734,"46":-0.03420480360613852,"47":0.09908153221287803,"48":-0.03747201241941638,"49":0.0881134817326089,"50":-0.05949932664278754,"51":-0.0666119616806324,"52":-0.11973826359075512,"53":-0.12514584844727875,"54":-0.03428192262873822,"55":0.08192794971494594,"56":-0.06700469006547471,"57":-0.06020434906168915,"58":-0.11740235670996103,"59":-0.013572748315786193,"60":0.013185651151986005,"61":-0.02367990131517447,"62":-0.08770137623707255,"63":0.012371422326661856,"64":-0.12348312180876057,"65":-0.04592766142396862,"66":0.027899205511112017,"67":0.07750340787220454,"68":-0.01036505706526593,"69":-0.07332506485681209,"70":-0.11610700418167985,"71":-0.12259897013973693,"72":0.17252532183012645,"73":-0.04262017275904834,"74":-0.029800840056665095,"75":-0.07395661072570557,"76":0.016635508258096603,"77":-0.08454489238560355,"78":0.059174621554810306,"79":0.10235083748365995,"80":0.13392095668917295,"81":-0.06764113596042579,"82":0.055840509545945376,"83":-0.06215962044208237,"84":-0.13579132098752014,"85":-0.06801870541125148,"86":-0.024910995294618505,"87":-0.0557107496146663,"88":-0.12029991498941965,"89":0.04742247024576045,"90":-0.047166400718030084,"91":0.03815783244918774,"92":-0.11023147205743349,"93":-0.03184988360542071,"94":0.002427486279258338,"95":-0.05975372164936216,"96":0.03356798385891284,"97":0.040573982056216464,"98":0.011477499797518291,"99":0.01456856758797097,"100":-0.06860053504944189,"101":0.04767150056705285,"102":0.02438773464619078,"103":0.009261727434249504,"104":-0.02709738833658053,"105":-0.03696592692012188,"106":-0.013908532394965102,"107":-0.0005472518993571187,"108":0.02362185204739562,"109":0.053525535631987746,"110":-0.035644670753207375,"111":-0.0018287352593290222,"112":-0.1077379417434603,"113":0.10051703009633711,"114":0.05518746091214073,"115":0.006893519505590691,"116":-0.015698519405346594,"117":0.05418170701766443,"118":0.0799946483144485,"119":-0.055621104893205583,"120":0.008407048671930581,"121":-0.02331889422283924,"122":-0.09647250511036404,"123":-0.06466572671112232,"124":0.1281558008468496,"125":-0.03272858324333325,"126":0.011155916219366669,"127":0.23970237778265804,"128":0.06173512514173164,"129":-0.006891883454641931,"130":-0.10124682328540369,"131":0.019533795314732337,"132":0.07478844558753434,"133":-0.02721334722650694,"134":-0.0064847446052231274,"135":-0.10195219019368912,"136":-0.04796310740819173,"137":0.021995031522016942,"138":0.06982260028298984,"139":-0.034382594923554756,"140":-0.03827114708768072,"141":0.023801816106378697,"142":-0.04216496592199189,"143":0.23059151951322732,"144":0.1396300170874608,"145":0.053784912539347834,"146":-0.022928698239407536,"147":-0.07669843107008922,"148":-0.08059044750772253,"149":-0.022248539995381972,"150":0.07195999319894324,"151":-0.003993813298583331,"152":0.060405399177922835,"153":0.0006200730203454184,"154":0.047472016098440976,"155":0.03754230200950592,"156":0.0023192567965667392,"157":-0.18018298641688607,"158":0.0975320752553472,"159":-0.044862459468863476,"160":0.11030660216833865,"161":-0.06427077527607498,"162":0.0450823499378719,"163":-0.10840111079876578,"164":0.007719469634958575,"165":-0.06649419721863997,"166":0.020722882243660454,"167":-0.1538978072424964,"168":0.14886907119374157,"169":0.08135465588866456,"170":0.0209490467872754,"171":-0.013735730327531354,"172":0.03307742839868843,"173":-0.06598750115772978,"174":0.1046622457104737,"175":-0.027658123066527648,"176":-0.036614965833653694,"177":-0.11317418084306871,"178":-0.09797183955574212,"179":-0.015710633623899614,"180":-0.17107934762067467,"181":-0.0770558150299664,"182":-0.08063164319059475}},{"sx":1,"sy":1,"depth":183,"w":{"0":0.038151138961007094,"1":-0.0777746561441248,"2":-0.028579744321600375,"3":-0.057012067690044785,"4":-0.15701366775041334,"5":0.11273933130516205,"6":0.058229921411516776,"7":-0.04193742187979349,"8":0.0023144182556086423,"9":-0.04461300206317052,"10":-0.029863176868142573,"11":0.12289589694997805,"12":0.00806375061096118,"13":-0.044246397590308115,"14":-0.08055235794797737,"15":-0.01510318595215401,"16":0.026880625368868493,"17":0.016490994577246967,"18":-0.0205357769147101,"19":0.08126289343274379,"20":-0.08422281563838366,"21":-0.08729562089718088,"22":0.12749928056117446,"23":-0.03437955134173325,"24":-0.029739839676036408,"25":0.032041974668043066,"26":-0.04879757496409229,"27":-0.002024374823944526,"28":-0.05196888109955656,"29":-0.08952088376866549,"30":0.05833771899381178,"31":-0.03569483595823169,"32":0.09230557463482289,"33":-0.06403102354586927,"34":-0.05397854583252517,"35":0.059925811079795985,"36":0.046566152365843556,"37":0.07266059182995949,"38":-0.1156277876698373,"39":0.02891391904999669,"40":0.02404100471137764,"41":0.06745512581097585,"42":-0.0023012526146210435,"43":0.10942308473977878,"44":-0.035423066377503726,"45":-0.07449582364107435,"46":0.056770107488643,"47":-0.25235371862733413,"48":0.027511109987901693,"49":0.00031506722986357494,"50":0.08231485362127693,"51":-0.06020005963362623,"52":-0.02222027289931708,"53":0.002413321397513132,"54":-0.0418873260384278,"55":-0.1955683236371357,"56":0.0162018451717927,"57":0.013443837447544389,"58":-0.08728822723324106,"59":0.0639828253679546,"60":-0.08188538883418993,"61":0.09348320740587404,"62":0.051904141375482396,"63":0.066806372408714,"64":-0.07671844685695509,"65":0.008906482458344314,"66":-0.04977335801062729,"67":0.0256082235133423,"68":-0.05266897441972733,"69":-0.0769749440062202,"70":0.013178468016916016,"71":-0.08253250540998512,"72":-0.020312799618992787,"73":-0.12297013445739903,"74":-0.037976747464119665,"75":-0.0828400456448606,"76":-0.06746437366372969,"77":0.028224729754013793,"78":0.060037078757392545,"79":0.05824826444023375,"80":-0.0488878739202214,"81":0.11133914704786785,"82":0.007505954464512044,"83":0.006014792069113353,"84":-0.0363819033516178,"85":-0.003156420394165843,"86":-0.03194907281479182,"87":0.011767299026907206,"88":-0.10785362764569002,"89":0.05115948743198844,"90":0.085122545415277,"91":0.1138147579269842,"92":-0.09397126095943036,"93":0.040349685292613874,"94":-0.060423377857404224,"95":-0.03667718852297483,"96":-0.0784560643180988,"97":-0.029663741881127047,"98":0.07390994082239537,"99":-0.09184683506447612,"100":-0.07677844655227951,"101":0.0629975728991719,"102":0.023015480665315946,"103":-0.0555485058911984,"104":-0.11228006629689738,"105":0.010728753702256219,"106":0.03504838359892176,"107":-0.12537539754066002,"108":0.11461778897281173,"109":0.0006733429697511201,"110":-0.08507913034582718,"111":0.14983104670190947,"112":-0.01909620904644744,"113":-0.0038508519909142285,"114":-0.0660072978524417,"115":0.02901371048887722,"116":0.08313863745286787,"117":-0.048277527160894444,"118":-0.000010950824867978496,"119":-0.09643912631254059,"120":0.08634417174144676,"121":-0.16632727297702238,"122":0.09121095579313675,"123":-0.12049193790902234,"124":0.03322871745324571,"125":-0.06793136195832823,"126":0.010938495910456689,"127":0.03845014796724298,"128":-0.07528366698126611,"129":0.02467171210604192,"130":0.031704193930959836,"131":-0.07204760638664384,"132":-0.018265655854059502,"133":-0.059975016906858566,"134":-0.018647770478392396,"135":-0.19182132292701548,"136":0.132927332196659,"137":-0.15549096029193044,"138":-0.05587078692275041,"139":-0.06539041017708612,"140":0.015493346608875625,"141":0.0714262271277572,"142":-0.01116677887152018,"143":0.13287039033549541,"144":-0.07992105087640267,"145":-0.033966755041311865,"146":-0.04477796263531604,"147":-0.17680827804707563,"148":-0.012527018762800891,"149":-0.013430410577550634,"150":0.08633339708756854,"151":0.05553652601191789,"152":0.012294539267902272,"153":0.06586217557374922,"154":-0.0298882745326391,"155":-0.006260970337022234,"156":-0.011327603460190433,"157":-0.10839680700286403,"158":-0.0032656767137954497,"159":-0.058478624678655625,"160":-0.013164740338720324,"161":0.09114333093033708,"162":-0.03739503090879076,"163":-0.03794421150069709,"164":-0.12637751474048617,"165":-0.06629800728140696,"166":-0.1304485177383101,"167":-0.013781324868828253,"168":-0.10283267029720615,"169":0.0004432485525686155,"170":-0.013768649018625262,"171":0.00808939454320291,"172":-0.07134078669247586,"173":-0.10562720746026913,"174":-0.08128000835776966,"175":-0.07353125021838171,"176":-0.08547560602396406,"177":-0.1432471171021019,"178":0.03450974783571706,"179":-0.03598204446637321,"180":-0.017352494390495247,"181":-0.08099423538936033,"182":0.025476083558552177}},{"sx":1,"sy":1,"depth":183,"w":{"0":-0.026416040689640933,"1":0.005448428764347771,"2":0.5390515404454576,"3":1.5115774842404075,"4":0.25098995021880555,"5":0.10944895483023653,"6":0.08785824834908196,"7":-0.027863134370069507,"8":0.0814646392939791,"9":0.2591901589606831,"10":-0.00020907316445597555,"11":0.11153237243217316,"12":0.05640683747820531,"13":0.06066758041498366,"14":0.0063272915865731924,"15":-0.043870376896694346,"16":0.37342208230126517,"17":-0.12269815441882287,"18":0.19854650477811048,"19":-0.16702206648026047,"20":-0.05396670004514656,"21":-0.08243690255640908,"22":-0.02630980034724723,"23":0.1847639091948972,"24":0.09382999064710536,"25":0.21938431288875784,"26":-0.0023546188065022133,"27":-0.011699003719297425,"28":-0.03166644578903407,"29":-0.03438833761134195,"30":0.3548878121379531,"31":-0.03049544197830299,"32":0.12202836460036907,"33":-0.06680781369706079,"34":-0.013822695657456998,"35":0.08400288716824691,"36":-0.07615115788367885,"37":0.3735161707353211,"38":1.487174265090672,"39":0.07005766678944443,"40":-0.008958192889487652,"41":0.11950131987509366,"42":0.009064008860760982,"43":-0.05776088040815427,"44":0.20374561148659356,"45":0.2034280263975498,"46":0.266169287249211,"47":0.06081392883964142,"48":-0.017839048413783608,"49":0.07467961729499947,"50":0.01789669684467792,"51":0.19522945028177593,"52":0.08417187154071643,"53":0.025727059454011242,"54":-0.0888682840079459,"55":0.04297577847489926,"56":0.023406070871518216,"57":-0.08897170763358234,"58":0.1989458204484272,"59":0.0678728890883005,"60":-0.021924779708828293,"61":0.0461647540896446,"62":0.020072994517077544,"63":0.04565296086717789,"64":-0.039062113807869676,"65":0.16538068860618704,"66":0.03946932085754395,"67":0.05054773231196207,"68":-0.1856791396134495,"69":0.016155375529061513,"70":-0.040610139686506605,"71":0.10314986858074258,"72":0.23330712560934774,"73":0.027787666878895376,"74":0.049627259474530165,"75":0.04255586837432871,"76":0.04491751246681559,"77":0.04537785778747555,"78":-0.010143329302550574,"79":0.2925806018055026,"80":0.2542019855103068,"81":0.1197024567659254,"82":-0.03919783512448297,"83":-0.0437809771417911,"84":-0.018692986981439553,"85":-0.025097326971284025,"86":-0.002308255610411888,"87":-0.02469343831953755,"88":-0.025941002469731626,"89":0.034919484195328115,"90":-0.013852483411727578,"91":0.019792391954585178,"92":0.04104822072463245,"93":0.09589045857314783,"94":-0.0074119891605153995,"95":0.016052150841436692,"96":0.12653289731193104,"97":-0.017373337158748902,"98":0.11373234419311853,"99":0.07971919203079286,"100":0.038010922101904904,"101":0.04386047636639827,"102":0.056344484248793375,"103":0.019166241325573895,"104":-0.08528356029665532,"105":0.08738587803546079,"106":-0.012935578632945624,"107":0.13595145697972674,"108":-0.12207316669943549,"109":-0.04536728777028642,"110":-0.09006750241512165,"111":-0.024000738695412947,"112":0.13128521059063125,"113":-0.0705939486119267,"114":0.034277705020804385,"115":0.022872752593087724,"116":-0.048697037481421235,"117":0.007783047009979089,"118":-0.05154855958293796,"119":0.027352322671122403,"120":-0.022386750759603124,"121":-0.0008938390710579539,"122":-0.0230361713838204,"123":-0.00261060065401432,"124":0.01506184695125947,"125":-0.08857974643433596,"126":0.19275612565269648,"127":0.05142573688734383,"128":0.015022935635475703,"129":-0.017134591424617186,"130":-0.029098847637971485,"131":-0.00472684313803343,"132":-0.00965168072324221,"133":0.0033402918115095887,"134":-0.010476663733378778,"135":-0.017627946832843595,"136":-0.0027306798917310486,"137":-0.055719123411976275,"138":-0.033692223020231823,"139":0.04369299145658651,"140":-0.021408864104009506,"141":-0.06792862970568006,"142":-0.09530551395058845,"143":-0.008855127151162377,"144":-0.0038730654440187304,"145":-0.0880944924128757,"146":0.16044443117409862,"147":0.07828523368029656,"148":-0.008509350925113549,"149":0.017647837054353268,"150":0.07184055418285318,"151":-0.00047320273636103176,"152":0.11695973511763112,"153":0.01484415039162036,"154":0.037777062602270414,"155":-0.011429658156719981,"156":-0.02769121587686949,"157":-0.07533129790293211,"158":0.038562846800586206,"159":0.0166383516874235,"160":0.0413404704013855,"161":0.012345117956589467,"162":0.05545614282024692,"163":-0.002830290880811259,"164":0.11106511912624381,"165":0.044980588373262756,"166":0.10906630391780525,"167":-0.03957509947026725,"168":-0.027689257346978385,"169":-0.05178245261417477,"170":-0.06215850314973647,"171":-0.013473389465496567,"172":-0.07136447525384165,"173":0.020044043473895587,"174":-0.03584832448902382,"175":0.044999913763123414,"176":0.020760428770989783,"177":-0.043287708845982174,"178":-0.044895511140796165,"179":-0.053408521331995217,"180":0.017718478396755933,"181":-0.04493312910842031,"182":-0.040231842546319285}},{"sx":1,"sy":1,"depth":183,"w":{"0":0.00648091510276889,"1":-0.16959469587521467,"2":0.014445124774398523,"3":0.02807357247837874,"4":0.1659084788816072,"5":0.08378366283465058,"6":-0.006284456890199318,"7":-0.08222329005836633,"8":0.08422719634728329,"9":-0.007690332804555419,"10":-0.030211462588365094,"11":0.10864786115733173,"12":0.0806115958161369,"13":0.041267543651141735,"14":-0.10492019945802813,"15":-0.06037832992079858,"16":-0.007441270491930186,"17":0.009264134750471416,"18":-0.008543279273093871,"19":-0.0014971663437394697,"20":-0.05228598930954853,"21":-0.10866468349555002,"22":-0.052804151351311446,"23":-0.09876594894307293,"24":0.02370724472954278,"25":0.07489374029138454,"26":-0.03175800580949893,"27":-0.07215011855412717,"28":-0.004870507677400871,"29":-0.06423091068849919,"30":-0.01520173741500221,"31":0.03414528105291998,"32":-0.034899672612036754,"33":-0.04923253208433962,"34":-0.013262543022707959,"35":0.02245330998911343,"36":-0.07862522253171192,"37":-0.008031732549093886,"38":-0.1907440625047391,"39":0.15211408868875728,"40":-0.017396699618572542,"41":-0.0069521883242185285,"42":-0.01857040789770634,"43":-0.014288908703603848,"44":0.007420934028825184,"45":-0.0991536471554926,"46":0.13255462141298327,"47":0.013496003788480787,"48":-0.09730860339662753,"49":0.0692035055162773,"50":0.09765705101568767,"51":-0.01410323681892068,"52":-0.06534904769034622,"53":0.008966247308275895,"54":0.09408427574463034,"55":-0.010025835107382136,"56":-0.012474495367578524,"57":-0.005064922158463435,"58":-0.2007001690698128,"59":0.04662961490512936,"60":0.12824373037780482,"61":-0.0804301767549829,"62":-0.036008195394854565,"63":-0.17374431971382318,"64":0.08180613916782696,"65":-0.05279667603935107,"66":-0.04769318090264984,"67":0.08344588023342775,"68":0.08494576540887941,"69":0.03388534746119441,"70":-0.0339627132977458,"71":0.023882788170894138,"72":-0.07618046551426812,"73":-0.09403398001762639,"74":0.0929608601302369,"75":0.1731332450607371,"76":0.08107730852801397,"77":0.03905387673788038,"78":-0.06703319098839478,"79":0.06590976846901146,"80":-0.11454484161083855,"81":0.10101573671094526,"82":-0.030427285213239133,"83":-0.09206548052036274,"84":0.09204299015007547,"85":-0.01777785532201693,"86":-0.13630227493535604,"87":-0.05003192973892403,"88":0.005565696769122386,"89":0.16817432650389452,"90":0.028899385605884818,"91":-0.11121573663848483,"92":-0.0017558251427283072,"93":0.18086989315239965,"94":0.06115648150486584,"95":-0.1023753513555987,"96":0.046529208580491505,"97":-0.13509120631122332,"98":-0.12884635743515171,"99":0.02127011180681466,"100":-0.0983575320990835,"101":0.00994383406531946,"102":0.0344105178508683,"103":-0.07800121781394787,"104":0.036529118751697884,"105":0.015087601980370489,"106":-0.11783340487903926,"107":0.02793368580443188,"108":-0.07458584739816336,"109":-0.13006388016523648,"110":0.052734014407363014,"111":0.06681332905937003,"112":-0.03509494883766921,"113":0.06442918159717916,"114":0.16064185681665535,"115":0.08941854220859365,"116":-0.009306590731553894,"117":-0.03536354061830749,"118":-0.07312482075218668,"119":-0.04196156717822327,"120":0.07095341537977119,"121":0.15105585769812613,"122":-0.08813166826680831,"123":-0.046576921099318935,"124":0.03493041733651119,"125":0.03235354303702181,"126":-0.07283659624436135,"127":-0.18161865031465071,"128":0.1040999456308238,"129":0.028460791381544674,"130":-0.03734744004013179,"131":-0.008128450842823322,"132":-0.06837731219388483,"133":-0.04182562369861748,"134":0.008171444838061023,"135":0.00422342175453867,"136":-0.049369663826241375,"137":0.08330671624322769,"138":-0.09955795841172668,"139":-0.057380499482893726,"140":-0.031215865692337724,"141":0.024533428703922864,"142":0.017485584048854027,"143":-0.05468343287982502,"144":-0.12176151110828316,"145":-0.08117948042597886,"146":0.029989317675411634,"147":0.07301203839739086,"148":0.1844294585073802,"149":0.12575896966746306,"150":-0.07527661782730666,"151":0.012538367373503513,"152":0.023579226944483576,"153":-0.11986703410962644,"154":0.0008049943410562728,"155":0.05645048333468491,"156":0.021599424143748075,"157":0.09662012475116209,"158":0.024368454504448495,"159":-0.02613146500046335,"160":-0.04922475880511002,"161":-0.10723173332725067,"162":-0.04281950959074673,"163":0.08595209939619389,"164":-0.08623883163552942,"165":0.012246163712879147,"166":-0.028502119606889288,"167":-0.0005808705554012034,"168":-0.018219044390577744,"169":-0.026105101767337685,"170":0.006003837905154346,"171":0.06487689183457988,"172":-0.15986991927414193,"173":-0.12660865181485143,"174":-0.005901727852195558,"175":-0.031196330110700502,"176":-0.02879220006240771,"177":0.01325802287744195,"178":-0.10681881784779196,"179":-0.020434563393328525,"180":-0.006129342372313246,"181":-0.05516182099903631,"182":-0.11681059777802184}},{"sx":1,"sy":1,"depth":183,"w":{"0":-0.013523717194622874,"1":-0.08941433236259179,"2":-0.0004991252271287864,"3":1.0549250410944502,"4":0.2692582686853871,"5":-0.12890226204795163,"6":0.0018752280311292704,"7":0.043239521883055056,"8":-0.060779650135430824,"9":-0.11495521466758017,"10":0.2667790721044374,"11":0.08788151810470934,"12":-0.09335105993352671,"13":-0.014027887100204276,"14":-0.009584914099922631,"15":-0.11961662205287608,"16":-0.10554248490657371,"17":0.012357410865289842,"18":0.058934261693031155,"19":0.051432149303993126,"20":-0.03545977127877837,"21":0.12484663231428425,"22":0.09997761285660947,"23":0.06425970718456517,"24":0.11978529147879458,"25":0.0505203561217911,"26":0.10256455386847739,"27":-0.06999831573756457,"28":0.11133680677912718,"29":0.09869907789738905,"30":-0.20408208196688218,"31":-0.07812915037986021,"32":0.17991287410659115,"33":-0.020137717454925007,"34":0.06089612444367259,"35":-0.08384835903540837,"36":0.05364189198689337,"37":-0.026138391181698865,"38":0.8032976775419889,"39":0.0721883289020297,"40":-0.09517682003842962,"41":-0.04774663465382693,"42":0.06517673548952434,"43":-0.03027107173890468,"44":0.0347988048286458,"45":0.18530139875212687,"46":0.020280759197715173,"47":0.00015674955086804205,"48":0.05887162042781162,"49":-0.0669636952670921,"50":-0.005481463887725456,"51":-0.18701503811719566,"52":0.026574571221742397,"53":0.14416971499158984,"54":0.058953680711857866,"55":-0.008284878287132692,"56":-0.05177990331114608,"57":0.0679996091412938,"58":-0.20094454988126725,"59":-0.018690565286222757,"60":0.10211352612431382,"61":-0.13218987210577363,"62":-0.056683582153348046,"63":0.04715785420759973,"64":-0.09758499798743588,"65":-0.10108144769457252,"66":0.03170362366223421,"67":0.028063030800527723,"68":0.091216260978969,"69":-0.05601963668566838,"70":-0.015268500010754258,"71":0.04790061262095457,"72":-0.03815533836209541,"73":-0.016142006248553435,"74":0.06274752343564144,"75":0.08230177743623385,"76":0.015068212566194722,"77":-0.00733516505048869,"78":-0.14392027504537824,"79":-0.11691856777416083,"80":-0.14619083173265301,"81":0.09865532209550258,"82":0.03421502697780932,"83":0.10011514071636583,"84":-0.013331562910412195,"85":-0.019071462068381777,"86":-0.0498868418744724,"87":-0.017105536421464673,"88":-0.017572645595727156,"89":-0.030794550642328743,"90":-0.05002942563018894,"91":-0.007879369742471888,"92":0.2038389202850329,"93":-0.07605758102039822,"94":-0.015609823535295253,"95":0.03250489928822866,"96":-0.05148415454883747,"97":0.026497079123957473,"98":-0.14737554443568646,"99":0.1884708227887356,"100":0.09139120424066055,"101":-0.014913860452830056,"102":-0.090599475170032,"103":-0.036738848752786754,"104":0.0475730067369929,"105":-0.0049372059584874605,"106":0.004476196544854047,"107":0.02142723517812037,"108":-0.016333512246811985,"109":0.0006802810579821695,"110":0.008779215356376605,"111":0.03711134272799252,"112":-0.07294253659236648,"113":0.009639220111297517,"114":0.12776597302488946,"115":0.04643911095072773,"116":0.018276072620374482,"117":-0.012448504387172077,"118":-0.002957496550706782,"119":-0.04009619358927465,"120":0.03351538095586499,"121":-0.025160653027577428,"122":0.04499091285040898,"123":-0.015462398594542622,"124":-0.008986925418480446,"125":-0.09317297422947325,"126":-0.06652540746742311,"127":0.00617765092351801,"128":0.1365514648727883,"129":0.013762930334892249,"130":0.025872724882528474,"131":-0.02612708643056297,"132":-0.023759289186919517,"133":-0.053480095980901816,"134":-0.03025691561199113,"135":-0.0306290192686699,"136":-0.01919301388456246,"137":0.05281584741481692,"138":0.015112562136656868,"139":0.008422898828722034,"140":-0.07860559060838954,"141":0.010635233101238659,"142":0.010922503958100576,"143":-0.055979930905890575,"144":0.06803706320588805,"145":-0.07088741194210982,"146":0.20959662271002144,"147":-0.008743428564274276,"148":-0.03444892004485011,"149":-0.06020706143017274,"150":-0.08109143288759559,"151":-0.051010695529375295,"152":0.027657627914324318,"153":-0.02811812644716495,"154":-0.024640354231393234,"155":-0.003215275375168047,"156":0.08541476856789462,"157":-0.0010206525000963943,"158":-0.005093623590606666,"159":-0.005639404919398523,"160":0.016819352899730057,"161":-0.020944624657215128,"162":0.06017796981900341,"163":-0.058466198608579836,"164":0.024512072919281886,"165":-0.018173814019507416,"166":-0.06313787769073849,"167":0.039888626806691,"168":0.06576854581701921,"169":0.004796732562862084,"170":-0.07466479466976915,"171":0.021489373298119965,"172":-0.021589833283217476,"173":-0.07437207066695631,"174":0.05663375496761888,"175":-0.016340539752247082,"176":-0.059672001379448586,"177":0.0756406899003289,"178":0.017761361932189596,"179":0.039282898526411834,"180":-0.003177793397029882,"181":0.031023106503678,"182":0.03168228795528174}},{"sx":1,"sy":1,"depth":183,"w":{"0":-0.029217505888423357,"1":0.04736325979981754,"2":0.0026932813143414236,"3":-0.021013774953750584,"4":0.11727262800901948,"5":0.04662260211071899,"6":0.05965803728457395,"7":-0.004291556055610323,"8":0.026078633588606834,"9":-0.03785237847890873,"10":0.07911638643418238,"11":0.03857932467593441,"12":-0.04351242913545596,"13":-0.025780578416004937,"14":0.07238332229849967,"15":0.08991651905558697,"16":0.04421460199975752,"17":0.058193211059468765,"18":-0.03981167752570455,"19":0.036771023502068206,"20":-0.06070089070165143,"21":-0.08610703395466367,"22":-0.013724415889318784,"23":-0.08029992419536704,"24":0.2232718384800716,"25":0.015203097225075814,"26":-0.09831870706936335,"27":-0.00038301210986054743,"28":-0.12677914627647066,"29":0.10565447001098617,"30":-0.15101215381132055,"31":-0.06009305695212724,"32":0.03934465976314056,"33":0.09474597592323729,"34":-0.10484298391318445,"35":-0.11107303589059037,"36":-0.0343448220212007,"37":0.012439434934859299,"38":0.07941314340235966,"39":-0.0735216932678463,"40":0.01923300043030809,"41":0.02952278552576951,"42":0.014744681790666138,"43":-0.0719911235715643,"44":0.15404410555314843,"45":-0.07358458878643828,"46":0.005375565943585945,"47":0.08020695966589281,"48":0.048814819203187226,"49":0.06899126929730885,"50":-0.09418547928568884,"51":-0.04598363669432418,"52":-0.06751950489432942,"53":0.0039195654026318175,"54":-0.12595930877732736,"55":0.14612326104315307,"56":-0.12058178101234608,"57":-0.17078416973636193,"58":-0.011146944731616999,"59":0.08590966877711843,"60":-0.017520431280619947,"61":-0.09782347911726545,"62":0.12815366320982788,"63":-0.07414808358482046,"64":0.07463141000974666,"65":0.02719428784544388,"66":-0.04685789530682657,"67":0.04485988213691404,"68":-0.07885005828897425,"69":-0.06431307695243779,"70":-0.016660625391310534,"71":-0.1282238321812403,"72":0.01075245505632442,"73":-0.012635360434635716,"74":0.08082847223667522,"75":-0.004518306252745778,"76":-0.012717355184485425,"77":0.01802188315601152,"78":-0.0541448805446537,"79":-0.01945294027239036,"80":-0.1753627639960435,"81":0.0029079138202632794,"82":-0.0031755879829023018,"83":0.008287532052289943,"84":-0.07481253455786968,"85":-0.10649780032042767,"86":-0.07380946213862057,"87":-0.07838813047758557,"88":-0.030548182957336783,"89":-0.015392993291453737,"90":-0.05799079195531543,"91":0.10590917949138404,"92":-0.048829140082291944,"93":0.0585497051248735,"94":-0.060429551478063295,"95":0.012764515448889766,"96":0.05340622869140675,"97":-0.058522519227171874,"98":-0.06761737002151968,"99":-0.04200091373547057,"100":0.08815380523745507,"101":0.04543708954373732,"102":0.029405266179014698,"103":0.0062578914985873,"104":0.05279953938509017,"105":0.13464794983281886,"106":0.10466927996824812,"107":0.09929450646082803,"108":-0.03570091500166001,"109":0.021733971624250486,"110":-0.17355026720108452,"111":0.12041136305737503,"112":-0.030002512630118654,"113":0.06630790539547847,"114":0.04428519921682829,"115":0.15582100831881082,"116":-0.10491441603182113,"117":0.02846763307494995,"118":-0.14406614910220414,"119":0.03007370102739046,"120":0.00029427349283388916,"121":0.005479154007057419,"122":-0.027656026765940787,"123":-0.03418885343994684,"124":-0.05851930135652388,"125":-0.009025990169919899,"126":-0.001774960105952506,"127":0.0826403705194534,"128":0.034827874316641284,"129":-0.0391699832947635,"130":-0.036573714686073046,"131":-0.043746672047378865,"132":-0.02324711830547608,"133":-0.037461881515402896,"134":-0.12782819525645026,"135":0.004075262016049408,"136":0.01660812719631122,"137":-0.09369851900479911,"138":-0.1184148497933842,"139":-0.04288638240070338,"140":-0.005552497623712159,"141":-0.05757549789464098,"142":-0.01877563034206495,"143":-0.04624881247828057,"144":0.005564609137847738,"145":-0.08876657938717615,"146":-0.06559324018719995,"147":-0.07776382387593703,"148":-0.04261803291196887,"149":-0.021562406712479217,"150":0.061179658973759994,"151":-0.06271548478198521,"152":-0.0003531710901616598,"153":-0.013125385099242453,"154":0.10913549812613857,"155":0.017640932347625624,"156":-0.0648584465096746,"157":-0.09832497939086388,"158":0.0017700529451408667,"159":-0.0166995636870056,"160":0.10078446466074982,"161":0.009732333324042013,"162":0.10128339700822243,"163":0.1643251526579853,"164":-0.03254259487981946,"165":-0.14122279375545987,"166":-0.050112730452817944,"167":0.047067464803007296,"168":0.0004307200236764088,"169":-0.008196585766054976,"170":-0.006418056538362541,"171":-0.037276403491124294,"172":-0.039674368598078574,"173":0.01597739581674317,"174":-0.051908079205980964,"175":0.0220122946087166,"176":-0.03659899734783488,"177":0.04047557924989243,"178":-0.02771211222173318,"179":-0.03776374664262003,"180":-0.1948639409996852,"181":-0.01969323286833012,"182":0.02441785978376895}}],"biases":{"sx":1,"sy":1,"depth":8,"w":{"0":0.10155273073629774,"1":0.0970255191469937,"2":0.09449523731127822,"3":0.09468265423513508,"4":0.0960179987343031,"5":0.09891914947330371,"6":0.09611569249077148,"7":0.09547148081831171}}},{"out_depth":8,"out_sx":1,"out_sy":1,"layer_type":"relu"},{"out_depth":5,"out_sx":1,"out_sy":1,"layer_type":"fc","num_inputs":8,"l1_decay_mul":0,"l2_decay_mul":1,"filters":[{"sx":1,"sy":1,"depth":8,"w":{"0":-0.4807124277923443,"1":0.18090077612855615,"2":-0.26240963986764476,"3":-0.21432442619721728,"4":0.49594659955393094,"5":-0.23619966112790075,"6":0.509453087314559,"7":-0.20813686103906914}},{"sx":1,"sy":1,"depth":8,"w":{"0":0.2001174703051073,"1":0.3141586035585362,"2":-0.6014244583731876,"3":0.28473938243408486,"4":0.5083285850598661,"5":-0.2741202554472572,"6":0.4988188017283428,"7":-0.15675754297496192}},{"sx":1,"sy":1,"depth":8,"w":{"0":-0.646791881697743,"1":0.29998268339998924,"2":0.04378573765528928,"3":0.20313480907979978,"4":0.46037129844319313,"5":-0.27600541873236484,"6":0.2989772263382359,"7":-0.20877357389795792}},{"sx":1,"sy":1,"depth":8,"w":{"0":-0.39121148833850006,"1":0.1168320135879978,"2":0.1481405002321738,"3":-0.6778829095602019,"4":0.7804613325146776,"5":-0.39283370007493784,"6":-0.24663069040310365,"7":0.5752690329051884}},{"sx":1,"sy":1,"depth":8,"w":{"0":-0.5263482793193898,"1":-0.21101481890562976,"2":-0.15220048160734742,"3":0.16852347311821608,"4":0.4782651424144942,"5":0.5739060418961015,"6":0.49756519919143766,"7":-0.8525179633040179}}],"biases":{"sx":1,"sy":1,"depth":5,"w":{"0":-0.03564492277529659,"1":-0.2341908419136157,"2":-0.05914109823737913,"3":-0.15708952302558934,"4":0.29883262393708515}}},{"out_depth":5,"out_sx":1,"out_sy":1,"layer_type":"regression","num_inputs":5}]});
}